solver_type L2R_L2LOSS_SVC
nr_class 2
label 0 1
nr_feature 173
bias -1
w
1.207100609359365 
0.4376686310261035 
0 
-0.2531845404789114 
-0.2254880033250999 
0.02655451929257281 
-0.146609788496597 
-0.1862029411640263 
-0.5885477551280719 
-0.02617310250101304 
0.1652278752459446 
-1.049996392101916 
-0.3676661331217256 
0.5612711437501248 
0.4858717019511464 
0.4887670631551491 
0.5075499847823418 
0.4641120117545035 
0.4696736495815935 
0.4837899431692099 
0.4842369077016007 
0.4941081696153 
0.4928646282729252 
0.5046461093186091 
0.5204224279426909 
0.5714715603295891 
0.6168384454116095 
0.4373628901571245 
0.5433244744561986 
0.5696045483479703 
0.520140426590505 
0.607706291255006 
0.6287655953865301 
0.5647819272277181 
0.4901060424788042 
0.7172914675235951 
0.5842213883165605 
0.5740319458535963 
0.56097853950451 
0.6169880555075905 
0.5919852435695727 
0.6444244212875131 
0.6267357403774138 
0.558638660765959 
0.4972178747407791 
0.4763896372476169 
0.5275552079784022 
0.7294571662013892 
0.3940203997491604 
0.6655848048387196 
0.652911479214784 
0.7383715650673341 
0.715811746745651 
0.4448821214931746 
0.3364668404144276 
0.7028196418075585 
0.8984591429568494 
0.3982709415461405 
0.6299107392443686 
0.5976627002347764 
0.4122099735817666 
1.555197487664291 
0.5438879839876209 
0.4462861244639342 
1.543299402760676 
0.5035687374514251 
0.4751436402644627 
0.9723218310243191 
0.9122495667347226 
0.8618468515424627 
0.8694218315490243 
1.50991403866207 
0.05018535605374511 
1.173489924046591 
0.5448092192622025 
0.8146405584166112 
1.023580712769618 
0.4515619082738342 
1.037784054321854 
0.4516020358878088 
0.4107030752186591 
1.06587454958314 
0.6491967480515192 
0.9974716629399749 
0.5559796976721447 
0.8391618172943881 
0.2915063635104895 
0.2420245337972857 
0.9290922665532965 
0.5631935749124841 
0.5099398546317121 
0.1819040202238127 
0.7833898348100585 
0 
0.1641928855810387 
1.107117827571775 
1.558002497212726 
0.905470928017698 
0.4347335109205225 
0.7365109685627624 
0.5558399313900235 
0.2603835719325172 
0.6132566495368145 
0.5738376655300735 
0.6389302441962198 
0 
0.2348263764402558 
0 
0.3765754837976066 
0.4573535200857326 
0.3121765479248892 
0 
1.129899943262382 
0 
0.2250643904457788 
0 
0.6594027689299884 
0.4033928601205551 
0 
0.6597676582415573 
0.2831010332053138 
0.4800201794516086 
0 
0.4570086797557467 
0.5485856092996696 
0.3537739033964377 
0.426586458565401 
0.6145127854929584 
1.380442087493681 
0 
0.423351383158013 
0.44058847278653 
-0.8777832083388306 
0.3132584340420193 
0.6263552660361775 
0 
0.1634180556051692 
0.4996591585767495 
0.6603901612910681 
0.4161491751623465 
1.073359253124085 
0 
0.5005882698619748 
1.605463735927632 
0.3398904201704335 
0.385656856592689 
0 
0.6083190947505234 
0.6111763049973561 
0 
0.5123643182792161 
0 
0.3512845615422163 
0 
0.4286936665046422 
0 
0.5307868231341706 
0 
0.4846622426153989 
0 
0.5156043075674739 
0 
1.228954019830175 
0 
0.3543177512158793 
0 
0.4378472731319577 
0 
0.006710981348266818 
1.12914624426329 
0 
0.4422737912575553 
0.4202586647684519 
