solver_type L2R_L2LOSS_SVC
nr_class 2
label 0 1
nr_feature 122
bias -1
w
0.02277175857724421 
-0.004373242823421697 
-0.2725840028310721 
0.1026834655438802 
-0.2799044682794525 
-0.09390105514264663 
0.2169394222160313 
0.0180307975961823 
0.8293381841143764 
0.138335073142858 
-1.087994209653937 
-0.5855638736414024 
0.7347337449095075 
0.6253498470265881 
0.03181096239365321 
0.06933028159256241 
0.02279526728748865 
-0.03101221381566719 
0.07293157605683262 
0.1895346945278437 
0.02477740759173865 
-0.05238984094208916 
0.1197317970406531 
0.2338219044894465 
0.09389479762555589 
0.1121662815861851 
0.09932130106899598 
0.06097684860287234 
0.103938265778272 
0.05399176262201165 
0.1455339194470819 
0.1616414361404466 
0.3115294709559964 
0.1110777572634652 
0.3151283653829688 
0.1956954798327617 
0.06876307765986855 
0.3843629742034898 
0.348407514684141 
0.05820222023993275 
-0.0410714676259975 
0.3649697910854162 
0.09825774260749309 
0.1953267531380508 
0.2560296985718617 
0.2283604321298773 
0.5842695209642821 
0.06018482847129529 
0.4066344008880224 
0.2317331267797114 
0.8729459420902221 
0.4673476204216876 
0.1602256358151837 
0.8857383439132844 
1.018334447262819 
0.6861958348515855 
0.1799936587818666 
0.8174945034237073 
0.6822690057711804 
0.2109877311304678 
-0.04793372415755308 
0.07873387112239358 
-0.1465891094949732 
0.4566427962371572 
0.3056475182563823 
0.4569813555906848 
0.9461031437357403 
0.4117898623394579 
0.2670036868857362 
0.2339315721637215 
0.3489587743660567 
0.006883643986905587 
0.9467202053567353 
0.678530206080564 
1.012077428193122 
0.8285804626406843 
1.125141261194502 
0.1968695245133917 
0.1976427528179079 
0.2807755679255217 
0.2071453137409584 
0.2200006662781364 
0.2841357313549274 
0.2220441188590819 
0.4378365129755015 
0.1559611836641331 
0.3485806139432134 
0.1032001332445095 
0.1414853274955403 
0.1146855652293366 
0.1062807851655739 
0.1020641739025699 
0.005440036376341145 
0.002867086323607784 
0.004909974205644204 
0.001745934697610082 
0.08388087446710198 
0.0009233869621921105 
0.05160175791855227 
0.1110908537736294 
0.04820087959376041 
0.0957787708749243 
0.1816914676455708 
0.09495323364247012 
0.154805125666087 
0.1083489285720321 
0.1650176537167898 
0.3687713368965833 
-0.1178587350076404 
0.3272559196739354 
-0.1329802457017309 
0.3807454624025108 
0.1622679509142238 
0.3899960750069625 
-0.001612100292283161 
0.3143916796933366 
0.2986097749217094 
0.1908964286946004 
-0.008805775360401814 
-0.1451839604924708 
0.04994403247402958 
0.233224388965992 
