solver_type L2R_L2LOSS_SVC
nr_class 2
label 1 0
nr_feature 122
bias -1
w
-0.01267757796332615 
0.01295096819012032 
0.2699480591762717 
-0.0897193126664611 
0.2559007168976467 
0.04824749079800165 
-0.2309579448765541 
-0.01766454633250083 
-0.8016883588943375 
-0.09728152689548819 
1.072435156838891 
0.4777641827028495 
-0.6182235481817769 
-0.5595767413243157 
-0.0577776635459763 
-0.08350845372477274 
-0.02082127747825173 
-0.001963351445517972 
-0.0800775237068843 
-0.1722046573374824 
-0.04815670267950986 
0.03143747684610452 
-0.08322633539645551 
-0.2493639442576124 
-0.11045689929838 
-0.1215049651757575 
-0.06397634615433205 
-0.07708013116139853 
-0.141621499848944 
-0.083088695948448 
-0.166685841058882 
-0.146178355048995 
-0.3497310389078943 
-0.1426904120782667 
-0.238890832603469 
-0.2359656384027743 
-0.04726971348809922 
-0.3512010267778339 
-0.3232656349967882 
-0.06966068497714879 
-0.1082562963375577 
-0.3076648092965117 
-0.07924443230906748 
-0.1724265136868221 
-0.367721506239689 
-0.1674808228150435 
-0.6575640940372667 
-0.1675279794985236 
-0.4231979213792211 
-0.3745349161988326 
-0.8029276095805825 
-0.5769842487191619 
-0.1935988913157868 
-0.8212713255252869 
-0.9190285485021807 
-0.62259976362284 
-0.1678362288891521 
-0.9568008697853494 
-0.7080912320683102 
-0.2163974968951592 
0.04125601430191098 
-0.09714938998301283 
0.1653418884208203 
-0.3829873775771144 
-0.3148621179929901 
-0.4697970547417616 
-0.9409380391382001 
-0.3936939572128924 
-0.261380998050204 
-0.2221779186690422 
-0.3773299941756807 
-0.004745099989888662 
-0.9516387309738072 
-0.6545226847525556 
-1.013418236604793 
-0.7826123850764005 
-1.064580901724751 
-0.2153567384389502 
-0.1943049800277837 
-0.294940667262437 
-0.205730283550162 
-0.1915671833016831 
-0.3147419965109997 
-0.1878401177666644 
-0.4843600894344358 
-0.2152991158115114 
-0.1930385095357681 
-0.08222993761661428 
0.02137438355327198 
-0.1384952257977309 
0.07709229218783348 
-0.1093607643669082 
-0.1349489009701319 
0.002059757037262477 
-0.01488318269275457 
0.009263212203208672 
0.02081781439523631 
0.003391890325194751 
-0.2186853185226749 
-0.1076900857127329 
-0.04697275881079508 
-0.08922718644999193 
-0.1893747008039525 
-0.08394866984889558 
-0.1702306167629166 
-0.113917365170329 
-0.1610667512384982 
-0.3638908154381629 
0.1478607256712209 
-0.361855755301592 
0.07840893000677548 
-0.3730597245070431 
-0.1412106516268345 
-0.3759037513400003 
-0.02075143275993955 
-0.3431798796783112 
-0.4182808468324153 
-0.2152377026200245 
-0.01192980345280914 
0.1478301868211774 
-0.04980720906721357 
-0.2212812516174419 
