solver_type L2R_L2LOSS_SVC
nr_class 2
label 0 1
nr_feature 151
bias -1
w
0.4884581265315049 
-0.5990537135068641 
-0.5313661299593305 
-0.129185108218602 
-0.8786194162131061 
0.2669128227804182 
0.7124141801547555 
-1.182197862149503 
-0.7976242116680902 
1.186618223795996 
0.7843892605749369 
0.2500066753497885 
0.7051740255207933 
0.2344792611164481 
0.7134585557132724 
0.3467241193417283 
0.4701720481569967 
0.2534107371456885 
0.6411001265447438 
0.5237984500544279 
0.5594854316752821 
0.64509722538069 
0.4703490648617977 
0.3372665844956782 
0.4968536457811777 
0.6661706078862939 
0.4297766920548086 
0.3147555260789627 
0.3290255215774882 
0.2861033060140899 
0.3993195026962563 
0.3969163511429315 
0.3798565746589024 
0.5999332558994755 
1.644584194837252 
0.4255430223135475 
0.5864181396512396 
2.516670462319226 
0.6006962117322489 
1.035423865675329 
-0.1068197790939834 
0.7775977293098819 
0.5867552687853343 
0.2799326695807199 
0.5510169963403819 
0.1033385914586177 
1.544847195101869 
0.4718300652742264 
-0.5008772873338733 
0.7411873367335111 
1.151175116926743 
1.242657535819789 
1.052817227417368 
-0.0938894107986276 
0.5112885660370112 
1.120524012866339 
0.2106712410262689 
1.143644622665728 
1.273133833541545 
0.7289881207905649 
0.8255929665357609 
0.4969659584571617 
0 
0.7176975183493307 
-0.6178300163969926 
1.069455658934213 
-0.1886951400249973 
0.664066753967499 
0.142669887785127 
1.007211506613848 
1.760774567173713 
0.4303006423700529 
-1.046525822302031 
0.9591020768372125 
0.9820827643347293 
0.9422462784293069 
0.2696801954308818 
0.2240253726850262 
0.2312883444237505 
0 
1.179777831739642 
0 
0.5078345805946881 
0 
0.2564139988092803 
0 
0.1885443119582124 
0 
0.5076910653228434 
0 
0.5180015367909924 
0 
0.5488226526985114 
0 
0.03717949868328412 
1.088459312406795 
0 
-0.01004978151797525 
0 
0.6958938327320593 
0 
0.1614616491704799 
0 
0.7156749857889627 
0 
0.7084252026193617 
0.091733112558021 
0.4669629506583612 
0 
0.7666744074682635 
0 
1.261744201467031 
0 
0.3455367084098169 
0 
0.4800184560955562 
0 
0.7620764313968555 
0 
0.3545586773291354 
0.6872547762881597 
0 
0.2222359373222946 
0.2662701612171444 
0.3946430440109183 
0 
0.5971342608831068 
0.6039207092631108 
0 
0.3862798409266819 
0.03410664586033685 
0.04343898845382303 
0 
0.04765659306708259 
0 
0.5480388166055743 
0 
0.5632847482619011 
0 
0.3153056726403794 
0 
0.2678741817737088 
0 
0.6996684406087024 
0 
0.9865460887267258 
0 
0.395015322809922 
0.08176996758125429 
0 
0.5850481665967967 
