solver_type L2R_L2LOSS_SVC
nr_class 2
label 0 1
nr_feature 173
bias -1
w
0.3015378829143946 
0.2853817085521259 
0 
-0.2412462419570152 
-0.2086277625106297 
0.02145004212219786 
-0.1392508591507351 
-0.1706857311069191 
-0.5846958494223735 
-0.03081226892196303 
0.06877347473854685 
-1.073996257808258 
-0.3426797950726447 
0.6877566072188024 
0.6514604379296445 
0.3448990012913359 
0.3554138534259205 
0.3231564503449867 
0.2977824184538887 
0.3125389121372652 
0.3443695496521443 
0.3606070274000662 
0.2992446328004194 
0.3459028728785136 
0.3682624879669533 
0.3906340808396921 
0.4229163336185651 
0.2739625047464704 
0.3384220424212895 
0.3735632785282146 
0.3811670206159611 
0.472768897069598 
0.4132220100845387 
0.3260233126400942 
0.364460720899993 
0.5035907686895208 
0.3330850357360426 
0.3551957649580212 
0.435703915413049 
0.4383812937213115 
0.380654510864161 
0.4182630401194227 
0.4359979603848104 
0.3651808035323708 
0.3546521026208521 
0.2561466063734391 
0.3375973050985079 
0.5760944595280275 
0.2202942647153124 
0.4079129777690362 
0.4138674832528256 
0.6579282833089606 
0.4498463589013223 
0.2128602387965685 
0.1226922248404857 
0.6389722507349659 
0.8434464021570857 
0.01418001258149857 
0.412625485854796 
0.566660452222419 
0.1463346080616671 
1.042519159628528 
0.522501170406812 
0.3079786585724675 
1.14296422254741 
0.4921283070883298 
0.5533581318472184 
0.9346023522090067 
0.418526005363198 
0.3903141012489445 
0.7687328840113083 
1.266219689187775 
-0.4300043977606627 
1.071373867876866 
0.9883647097866683 
0.6303401371765011 
0.6033310490184731 
0.2282015326335127 
0.6490582190890907 
0.3280411871481868 
0.3019595477768716 
0.5301550291401428 
0.4904747687748779 
0.9103879991372368 
0.3945793230201225 
0.6563075297251989 
0.7515310268453453 
0.2624535790032569 
0.6379155625890776 
0.2945728018548412 
0.3616727683243436 
0.2197398435923819 
0.9514939428969843 
0 
0.5215639816879359 
0.9547475914746419 
1.097740764155142 
0.6161903039026735 
0.2471194751033861 
0.6772568058390476 
0.330843578999932 
0.1299335272962632 
0.4912691362289298 
0.4742320936861311 
0.4240354699788919 
0 
-0.03289737198244039 
0 
0.3023716665045834 
0.261214721914558 
0.9214440507612475 
0 
0.6905783550309162 
0 
-0.1487048053167198 
0 
0.490976806341635 
0.3835057385829385 
0 
0.6384031173156104 
0.1072394589213666 
0.525146023994883 
0 
0.3025408046788103 
0.5461393496076977 
0.1598731442322526 
0.2252963508647284 
0.3520870605787854 
0.8923993022932321 
0 
-0.2414502005332695 
0.271234317603161 
-0.5502400783485448 
0.2054219346050089 
0.7447778569088939 
0 
0.02076481872294653 
0.3216763650812072 
0.6236434162181865 
0.4549798594788591 
0.2892786008900963 
0 
0.1795819704975071 
1.470498454660989 
-0.232142350207402 
0.2777792744369977 
0 
0.5529698048156674 
0.3993045123397247 
0 
0.2546129717899288 
0 
0.2013519993267957 
0 
0.2464155046617695 
0 
0.256222565087483 
0 
0.6061741098420621 
0 
0.449079349305286 
0 
0.6107285688421722 
0 
0.4611234305360145 
0 
0.3813639818259713 
0 
0.3124356781381583 
1.101193587638771 
0 
0.1388453918326865 
0.09157614328943189 
