solver_type L2R_L2LOSS_SVC
nr_class 2
label 0 1
nr_feature 122
bias -1
w
0.02639833455683204 
0.002040436307847214 
-0.2718261770485457 
0.1007652667591405 
-0.2793332663886274 
-0.1037766472777778 
0.2158028819612136 
0.02105513624412869 
0.8113533697076198 
0.1350935510044155 
-1.081397816354902 
-0.5745303933036401 
0.7414226980907808 
0.6196492626469081 
0.04212918585413259 
0.07480621059878825 
0.0277958660385711 
-0.02464146534857649 
0.07557672123166667 
0.193671805236309 
0.03077022819395887 
-0.04435780829634044 
0.1226677309126503 
0.234756843598501 
0.1010896110925062 
0.1110141690845148 
0.1162166205288127 
0.0822537134406692 
0.1061995696286409 
0.05230506971744268 
0.159841289774785 
0.1589795286454414 
0.2911919298945008 
0.1258751277787611 
0.2832042451739503 
0.2062780525764489 
0.08061191044742011 
0.3717632908356674 
0.3451240420671767 
0.07688451269692421 
-0.03390885717182328 
0.3384801240701951 
0.08501844924105473 
0.2539905920856394 
0.3211569189351039 
0.168318536120738 
0.5198093362118809 
0.092539691744352 
0.3984172007151621 
0.2449309740307224 
0.8721404456874849 
0.4606404011199788 
0.1453463483942138 
0.8813904428973705 
1.030058398852583 
0.6610125302715437 
0.1947748717845767 
0.8177216190236325 
0.675008807532815 
0.2259922752593035 
-0.04640259381877261 
0.08919885124954735 
-0.1428941479085208 
0.4566363570565861 
0.3050587204588033 
0.4563027954051633 
0.9456944999062216 
0.4082806898307025 
0.2673058067238483 
0.2326179474502275 
0.3551862199209931 
0.006827246194110203 
0.9957296946871499 
0.6881425869040594 
1.009751039568398 
0.8289768574046683 
1.122514046842937 
0.195934499436618 
0.2010808779224828 
0.2814085474828154 
0.2109014365232948 
0.2246300616129946 
0.2814480724465256 
0.2271410250107579 
0.4373727501624732 
0.1557771250295896 
0.3548144257996808 
0.1028115429549857 
0.1391357350566624 
0.1167530156545984 
0.1049430580764817 
0.1094314654789378 
0.006626510587815254 
0.002901965648310557 
0.006091531921819549 
0.001753306800287095 
0.07634964663682459 
0.0009073464166544801 
0.04494811505123089 
0.1170115410734587 
0.05103412987784395 
0.0970363826088127 
0.183294611976736 
0.09968242188688675 
0.158024991191977 
0.1067662590008982 
0.1640627315440698 
0.3763958323160727 
-0.1200521799573418 
0.3226590693846477 
-0.1308830646419791 
0.3865527463045004 
0.1213588226920312 
0.3782999795567545 
0.02222146582129701 
0.3107624452965254 
0.330442433899738 
0.187456824379213 
-0.03798078612720959 
-0.125809135152062 
0.05825480880543939 
0.2512826139111701 
